Language model created by QuickLM on Mon Jun  6 06:23:03 EDT 2016
Copyright (c) 1996-2010 Carnegie Mellon University and Alexander I. Rudnicky

The model is in standard ARPA format, designed by Doug Paul while he was at MITRE.

The code that was used to produce this language model is available in Open Source.
Please visit http://www.speech.cs.cmu.edu/tools/ for more information

The (fixed) discount mass is 0.5. The backoffs are computed using the ratio method.
This model based on a corpus of 35 sentences and 58 words

\data\
ngram 1=58
ngram 2=95
ngram 3=68

\1-grams:
-0.9093 </s> -0.3010
-0.9093 <s> -0.2422
-2.4533 A -0.2995
-2.4533 ALBUM -0.2439
-2.4533 ALPHA -0.2439
-2.1523 AMERICA -0.2439
-2.4533 ARTIST -0.2439
-2.4533 AUSTRALIA -0.2439
-2.4533 AVA -0.2439
-2.4533 BATMAN -0.2439
-2.4533 BRITAIN -0.2439
-2.4533 COMPUTER -0.2439
-2.4533 CONSTANTIN -0.2439
-2.4533 DARTH -0.2995
-2.4533 DATE -0.2902
-2.4533 DOES -0.2995
-2.4533 EIGTH -0.2439
-2.4533 ELEVEN -0.2439
-2.4533 FIVE -0.2439
-2.4533 FOUR -0.2439
-2.4533 FRANCE -0.2439
-2.4533 GERMANY -0.2995
-2.4533 GREAT -0.2995
-2.4533 HAN -0.2995
-2.4533 HAVE -0.2439
-2.4533 HOW -0.2995
-2.4533 INHABITANS -0.2995
-1.6082 IS -0.2886
-2.4533 IT -0.2439
-2.4533 KEVIN -0.2439
-2.4533 LUKE -0.2995
-2.4533 MANY -0.2995
-2.4533 NINE -0.2439
-2.1523 OF -0.2949
-2.4533 ONE -0.2439
-2.4533 PI -0.2439
-2.4533 PRESIDENT -0.2980
-2.4533 SAY -0.2995
-1.9762 SEARCH -0.2964
-2.4533 SEVEN -0.2439
-2.4533 SIX -0.2439
-2.4533 SKYWALKER -0.2439
-2.4533 SOLO -0.2439
-2.4533 SOMETHING -0.2439
-2.4533 SONG -0.2439
-2.4533 SPOTIFY -0.2439
-2.4533 STATES -0.2980
-2.4533 TEN -0.2439
-2.1523 THE -0.2980
-2.4533 THREE -0.2439
-2.4533 TWELVE -0.2439
-2.4533 TWO -0.2439
-2.4533 UNITED -0.2995
-2.4533 VADER -0.2439
-1.9762 WHAT -0.2886
-1.8513 WHO -0.2902
-2.4533 WOLFRAM -0.2995
-2.4533 YODA -0.2439

\2-grams:
-1.8451 <s> AMERICA 0.0000
-1.8451 <s> AUSTRALIA 0.0000
-1.8451 <s> AVA 0.0000
-1.8451 <s> CONSTANTIN 0.0000
-1.8451 <s> DARTH 0.0000
-1.8451 <s> EIGTH 0.0000
-1.8451 <s> ELEVEN 0.0000
-1.8451 <s> FIVE 0.0000
-1.8451 <s> FOUR 0.0000
-1.8451 <s> FRANCE 0.0000
-1.8451 <s> GREAT 0.0000
-1.8451 <s> HOW 0.0000
-1.8451 <s> KEVIN 0.0000
-1.8451 <s> NINE 0.0000
-1.8451 <s> ONE 0.0000
-1.8451 <s> SAY 0.0000
-1.3680 <s> SEARCH 0.0000
-1.8451 <s> SEVEN 0.0000
-1.8451 <s> SIX 0.0000
-1.8451 <s> SPOTIFY 0.0000
-1.8451 <s> TEN 0.0000
-1.8451 <s> THREE 0.0000
-1.8451 <s> TWELVE 0.0000
-1.8451 <s> TWO 0.0000
-1.3680 <s> WHAT 0.0000
-1.2430 <s> WHO 0.0000
-1.8451 <s> WOLFRAM 0.0000
-1.8451 <s> YODA 0.0000
-0.3010 A COMPUTER 0.0000
-0.3010 ALBUM </s> -0.3010
-0.3010 ALPHA </s> -0.3010
-0.3010 AMERICA </s> -0.3010
-0.3010 ARTIST </s> -0.3010
-0.3010 AUSTRALIA </s> -0.3010
-0.3010 AVA </s> -0.3010
-0.3010 BATMAN </s> -0.3010
-0.3010 BRITAIN </s> -0.3010
-0.3010 COMPUTER </s> -0.3010
-0.3010 CONSTANTIN </s> -0.3010
-0.3010 DARTH VADER 0.0000
-0.3010 DATE IS -0.2688
-0.3010 DOES GERMANY 0.0000
-0.3010 EIGTH </s> -0.3010
-0.3010 ELEVEN </s> -0.3010
-0.3010 FIVE </s> -0.3010
-0.3010 FOUR </s> -0.3010
-0.3010 FRANCE </s> -0.3010
-0.3010 GERMANY HAVE 0.0000
-0.3010 GREAT BRITAIN 0.0000
-0.3010 HAN SOLO 0.0000
-0.3010 HAVE </s> -0.3010
-0.3010 HOW MANY 0.0000
-0.3010 INHABITANS DOES 0.0000
-1.1461 IS A 0.0000
-1.1461 IS BATMAN 0.0000
-1.1461 IS HAN 0.0000
-1.1461 IS IT 0.0000
-1.1461 IS LUKE 0.0000
-1.1461 IS PI 0.0000
-1.1461 IS THE -0.1761
-0.3010 IT </s> -0.3010
-0.3010 KEVIN </s> -0.3010
-0.3010 LUKE SKYWALKER 0.0000
-0.3010 MANY INHABITANS 0.0000
-0.3010 NINE </s> -0.3010
-0.6021 OF AMERICA 0.0000
-0.6021 OF THE -0.1761
-0.3010 ONE </s> -0.3010
-0.3010 PI </s> -0.3010
-0.3010 PRESIDENT OF -0.1761
-0.3010 SAY SOMETHING 0.0000
-0.7782 SEARCH ALBUM 0.0000
-0.7782 SEARCH ARTIST 0.0000
-0.7782 SEARCH SONG 0.0000
-0.3010 SEVEN </s> -0.3010
-0.3010 SIX </s> -0.3010
-0.3010 SKYWALKER </s> -0.3010
-0.3010 SOLO </s> -0.3010
-0.3010 SOMETHING </s> -0.3010
-0.3010 SONG </s> -0.3010
-0.3010 SPOTIFY </s> -0.3010
-0.3010 STATES OF -0.1761
-0.3010 TEN </s> -0.3010
-0.6021 THE PRESIDENT 0.0000
-0.6021 THE UNITED 0.0000
-0.3010 THREE </s> -0.3010
-0.3010 TWELVE </s> -0.3010
-0.3010 TWO </s> -0.3010
-0.3010 UNITED STATES 0.0000
-0.3010 VADER </s> -0.3010
-0.7782 WHAT DATE 0.0000
-0.4771 WHAT IS -0.2341
-0.3010 WHO IS -0.1549
-0.3010 WOLFRAM ALPHA 0.0000
-0.3010 YODA </s> -0.3010

\3-grams:
-0.3010 <s> AMERICA </s>
-0.3010 <s> AUSTRALIA </s>
-0.3010 <s> AVA </s>
-0.3010 <s> CONSTANTIN </s>
-0.3010 <s> DARTH VADER
-0.3010 <s> EIGTH </s>
-0.3010 <s> ELEVEN </s>
-0.3010 <s> FIVE </s>
-0.3010 <s> FOUR </s>
-0.3010 <s> FRANCE </s>
-0.3010 <s> GREAT BRITAIN
-0.3010 <s> HOW MANY
-0.3010 <s> KEVIN </s>
-0.3010 <s> NINE </s>
-0.3010 <s> ONE </s>
-0.3010 <s> SAY SOMETHING
-0.7782 <s> SEARCH ALBUM
-0.7782 <s> SEARCH ARTIST
-0.7782 <s> SEARCH SONG
-0.3010 <s> SEVEN </s>
-0.3010 <s> SIX </s>
-0.3010 <s> SPOTIFY </s>
-0.3010 <s> TEN </s>
-0.3010 <s> THREE </s>
-0.3010 <s> TWELVE </s>
-0.3010 <s> TWO </s>
-0.7782 <s> WHAT DATE
-0.4771 <s> WHAT IS
-0.3010 <s> WHO IS
-0.3010 <s> WOLFRAM ALPHA
-0.3010 <s> YODA </s>
-0.3010 A COMPUTER </s>
-0.3010 DARTH VADER </s>
-0.3010 DATE IS IT
-0.3010 DOES GERMANY HAVE
-0.3010 GERMANY HAVE </s>
-0.3010 GREAT BRITAIN </s>
-0.3010 HAN SOLO </s>
-0.3010 HOW MANY INHABITANS
-0.3010 INHABITANS DOES GERMANY
-0.3010 IS A COMPUTER
-0.3010 IS BATMAN </s>
-0.3010 IS HAN SOLO
-0.3010 IS IT </s>
-0.3010 IS LUKE SKYWALKER
-0.3010 IS PI </s>
-0.3010 IS THE PRESIDENT
-0.3010 LUKE SKYWALKER </s>
-0.3010 MANY INHABITANS DOES
-0.3010 OF AMERICA </s>
-0.3010 OF THE UNITED
-0.3010 PRESIDENT OF THE
-0.3010 SAY SOMETHING </s>
-0.3010 SEARCH ALBUM </s>
-0.3010 SEARCH ARTIST </s>
-0.3010 SEARCH SONG </s>
-0.3010 STATES OF AMERICA
-0.3010 THE PRESIDENT OF
-0.3010 THE UNITED STATES
-0.3010 UNITED STATES OF
-0.3010 WHAT DATE IS
-0.6021 WHAT IS A
-0.6021 WHAT IS PI
-0.9031 WHO IS BATMAN
-0.9031 WHO IS HAN
-0.9031 WHO IS LUKE
-0.9031 WHO IS THE
-0.3010 WOLFRAM ALPHA </s>

\end\
